{
 "Weights": [
  [
   [
    -0.19646163722963506,
    -0.018666128953632777
   ],
   [
    -0.697807446383409,
    0.03282149847054938
   ],
   [
    0.19558815604959942,
    0.09352209542837055
   ],
   [
    -0.4498349441211464,
    -0.20990406773013146
   ],
   [
    0.33092155577782756,
    0.03517821304853365
   ],
   [
    0.3822816618936844,
    0.40856106229160194
   ],
   [
    0.2548439382705413,
    -0.0664317986729725
   ],
   [
    -0.4741665079163696,
    0.06647206108643978
   ],
   [
    -0.4994774082751339,
    0.013842691744649891
   ],
   [
    -0.4082633580024659,
    0.15191657043655704
   ],
   [
    -0.31315331751886577,
    -0.3976604089635451
   ],
   [
    -0.41523809483168955,
    -0.19300688709802405
   ],
   [
    0.140338090137667,
    0.3839060731796043
   ],
   [
    -0.4781071562313642,
    -0.09907321334373936
   ],
   [
    -0.4623839857572146,
    -0.35561341073897385
   ],
   [
    -0.3110530203744116,
    0.10075156227693322
   ],
   [
    0.8301928925415019,
    -1.3997102559116708
   ],
   [
    0.3692425438943559,
    0.10919206353501631
   ],
   [
    -0.33520311219877147,
    0.18767647041820576
   ],
   [
    0.4929182543699365,
    -0.16115518820702282
   ]
  ],
  [
   [
    0.4214074962429302,
    0.1730861797048103,
    0.266834802874918,
    -0.12409603325507285,
    -0.5709972640832749,
    -0.7352014764706983,
    -0.4610439357070902,
    -0.24092586771840982,
    0.4248140267246727,
    0.4792235930082243,
    -0.49052488086028184,
    -0.18082035746046504,
    -0.4746682238737787,
    0.008080724089166366,
    -0.010769968231117033,
    0.11989419524126764,
    0.2866585758770314,
    -0.4165886385583704,
    0.01586188785009615,
    -0.6324894584402287
   ],
   [
    0.16880195665224487,
    -0.2392510969507365,
    -0.5641864728355684,
    0.1539341567282445,
    -1.01427021879516,
    -1.2123341786152195,
    -1.2671860219641693,
    0.0914027504017317,
    0.3007137760956443,
    0.18329130683729344,
    -0.37068915324390667,
    -0.474034887863239,
    -1.208127941605732,
    0.11948908843085648,
    -0.47241218254312983,
    -0.11715344340859726,
    -0.504664281574724,
    -0.7002142693458375,
    -0.2447353444204697,
    -1.3006104424367833
   ],
   [
    -0.43770786267140827,
    -0.33987963947118277,
    0.24900520385410724,
    0.14782075747484114,
    -0.4660688278976188,
    -0.8170134403145966,
    -0.6442241823289059,
    -0.03673590682308566,
    -0.35289581207903387,
    0.35552423378352854,
    -0.3761254994339577,
    -0.11883461008389168,
    -0.4272453753993157,
    -0.42415988203715127,
    -0.18272387172649007,
    -0.2762136922704999,
    -0.1640626501541753,
    -0.41007071679787876,
    0.2898042168573366,
    -0.928247175279819
   ],
   [
    -0.22486099596653888,
    -0.24688915365865585,
    0.10852662373013418,
    0.04913736058084872,
    -0.36426687498696037,
    -0.8752737749610835,
    -0.06355758940360848,
    0.15095757532424203,
    0.10725661725620594,
    -0.022565329843963332,
    0.15029941993747886,
    0.1956885938740561,
    -0.2389298755642414,
    0.2599497281793193,
    0.024809561869044816,
    -0.363315634231979,
    -0.26579592038033506,
    -0.9307281438297395,
    -0.43679837409803246,
    -0.8091377282119282
   ],
   [
    -0.054893728893790704,
    -0.23743644597164734,
    0.3174224459212657,
    -0.3714318083584218,
    -0.7333510571820275,
    -1.0802454423243055,
    -1.3148990008963695,
    -0.15041014033111574,
    -0.16180083621812785,
    -0.26821397181527246,
    -0.0014215257710697917,
    -0.2295878918646694,
    -1.0564695783898006,
    0.2219299999740636,
    0.05321873966892976,
    0.34277962502060594,
    0.25701255216895125,
    -0.4378806252415638,
    -0.17186821052241785,
    -0.6814116498145442
   ],
   [
    0.10439016506864193,
    -0.065138839662457,
    -0.26568853279955357,
    0.2979840562715109,
    -0.7132182281442637,
    -0.6442248510761943,
    -1.343201877732189,
    -0.222851387157555,
    -0.19937613888986372,
    -0.47089364889242535,
    0.2751303066276587,
    -0.3021661874293007,
    -1.5290577189430956,
    -0.34091359063668636,
    0.1899517610450634,
    0.32555203079285844,
    -0.026786903789303963,
    -0.9524245780049513,
    -0.4244263772706968,
    -1.237197661158656
   ],
   [
    -0.2471648815296898,
    -0.2410623223865701,
    -0.31401715925562446,
    0.2872149653412456,
    -0.5608595323036641,
    -0.1636320226111324,
    -0.5444449062175987,
    0.09284470585524261,
    0.3483980803654424,
    -0.2627865014558128,
    0.25495099397903526,
    0.06614203927195872,
    -0.46460231829989,
    -0.4608126771931896,
    -0.3273536285577672,
    -0.13772209232186053,
    -0.4953948606800911,
    -0.3174773175182807,
    0.4244537951835092,
    0.2920326535070543
   ],
   [
    -0.4445505968340682,
    0.05570472244703451,
    0.43040554377042983,
    -0.4284220523297273,
    -0.4234704605840497,
    -0.6118089545350254,
    -0.8347658272619225,
    0.1570639333024656,
    0.3896615119087352,
    0.2939808707601829,
    0.1829955214651821,
    0.46671993670670736,
    -0.3522400063698275,
    0.4686269634074065,
    0.4020766792514797,
    -0.16071227243940778,
    -0.5034949064057214,
    -0.8039929922240978,
    0.35166972024467924,
    -0.22848132863508808
   ],
   [
    0.1012250919176635,
    0.2807629435656775,
    -0.43876332960174946,
    0.47697432130419615,
    -0.29650536935406946,
    -0.17608840279595064,
    -0.1875865247365462,
    -0.45680497970332057,
    0.37274925391994695,
    -0.2310548786956215,
    0.30630573764292124,
    0.010729064587265873,
    -0.32579435429562614,
    0.1391778335844609,
    0.3372878750991768,
    0.2964742071786416,
    -0.17927457014870243,
    -0.8055391836875827,
    0.16418521459776506,
    -0.8356922791778769
   ],
   [
    0.4577020421303136,
    0.3621514581897935,
    -0.22333682106020583,
    -0.15416588554983407,
    -1.363516216271947,
    -1.5037969298624467,
    -1.2071167322867848,
    0.47379844759632034,
    0.12694910901868162,
    -0.19225711745786228,
    -0.2999329907960726,
    0.14713559570897725,
    -0.8796906958546679,
    -0.040465923715495844,
    0.3123462601053504,
    0.09878775272444863,
    -0.0001593999700764037,
    -0.9056114721188036,
    -0.4453203747643158,
    -1.1429672040256358
   ],
   [
    -0.06575843966299824,
    0.3719219529589668,
    0.35677267698782156,
    0.03603430576239641,
    -0.3089918795560602,
    0.2461978082406871,
    0.4220416444535906,
    -0.1972011437159884,
    0.4089699824406501,
    -0.3478717802853899,
    0.16805375190407815,
    0.29255834020875127,
    -0.07936450067493026,
    -0.4607914492744713,
    -0.2396380758698468,
    -0.4990395876863942,
    -1.3992709411618391,
    -0.25354041934350846,
    -0.127643757289032,
    -0.5183717017799951
   ],
   [
    -0.20784985924550275,
    -0.09866315856640427,
    0.05766408625319773,
    -0.48460971896431787,
    -0.4421522598917717,
    0.0281477230745271,
    -0.8483556060584578,
    0.35412044922131836,
    0.3105437350261052,
    -0.053338733479421876,
    0.0408894792366155,
    0.32357316664732705,
    -0.5757077781968405,
    -0.15397389029188263,
    -0.23935647667299925,
    0.18467926739578303,
    0.046875218358464955,
    -0.21470741185519163,
    -0.20071780720308388,
    -0.5828727596369486
   ],
   [
    -0.44958923365363646,
    -0.18558551877061688,
    0.29950014032316274,
    0.41352157603262574,
    -0.021158923856151726,
    -0.4986467854981513,
    -0.23775367997489277,
    -0.46593158190887274,
    -0.15248287825159043,
    0.23725761376097113,
    0.3208707652746181,
    -0.12921546334489326,
    -0.6682976819366672,
    0.038063087043984416,
    0.3785879930283582,
    0.21473258959141794,
    -0.4108184358543541,
    -0.32616186373692574,
    -0.14409969407383014,
    -0.7924032823465549
   ],
   [
    0.14400721902274027,
    -0.042866170051181755,
    0.27169982796230285,
    0.11904106358951583,
    -0.4802323663767309,
    -0.12132567376871987,
    -0.2063411816253501,
    0.22639520788153616,
    0.08967349504276845,
    0.3287191710906821,
    -0.4126022851865127,
    0.2846561286084585,
    -0.27370726280524643,
    0.012349500953581087,
    0.36396102135176,
    0.2585437597795822,
    -0.2793609950313547,
    -0.5157332535009329,
    -0.3757584575570933,
    -0.4040423611782726
   ],
   [
    0.34272647166832737,
    0.3426311132353614,
    0.22392606590281475,
    0.2977483789082096,
    -0.1593012774817966,
    -0.5620991392480482,
    -0.42317954068715213,
    -0.1564856204237124,
    -0.22886300246905567,
    0.09093445698989397,
    -0.06015673977893432,
    0.13955347160720805,
    -0.8512253726851196,
    -0.38345648449095127,
    0.11132005127535705,
    -0.09469416675273362,
    0.5084420727259619,
    -0.41557147702348346,
    0.3922622561930435,
    -0.09800842380524599
   ],
   [
    -0.1523397712199482,
    0.15051619164435032,
    -0.307707805346156,
    -0.11425403591859007,
    -0.8707304141455722,
    -0.9652203143476675,
    -1.4502581677749036,
    -0.4852706581040733,
    0.31571876157388434,
    0.3836456961090633,
    -0.1669717993211539,
    -0.09889269830463407,
    -1.1682393881653068,
    0.053403029448430894,
    -0.04728715925222399,
    0.27480813519945413,
    0.011304887371716501,
    -1.6634931754400912,
    0.30870852925048764,
    -0.8335139770640444
   ],
   [
    -0.3084918599010712,
    0.1037735965840958,
    -0.14789867564723408,
    -0.3706710816072114,
    -0.695125343532093,
    -1.048804116333894,
    -1.322461637331418,
    0.37207125978197986,
    -0.383643560565329,
    -0.40264121756947774,
    0.29860243395354286,
    -0.2151709976805429,
    -1.3255175702750146,
    0.07470908085074912,
    -0.255694026969021,
    -0.10891802680865155,
    -0.3329441511488394,
    -1.433154707287366,
    0.10438770129746436,
    -0.8928761868037518
   ],
   [
    -0.49046525978650934,
    0.18816137728819038,
    -0.28302420358303004,
    0.14133816429282653,
    -0.6866415799092678,
    -0.1720062246196689,
    -0.13653212081970534,
    0.05104167239821251,
    0.131395107341426,
    0.13472006042749007,
    -0.3400592575603703,
    -0.37723152810001315,
    -0.5388671345672551,
    0.17019778337901148,
    -0.31125591915641504,
    -0.04572878320085813,
    -0.17444996911045815,
    -0.5226566702835586,
    -0.1587145424292913,
    -0.7128747115590688
   ],
   [
    0.018921068823097586,
    0.13798371090424272,
    -0.20709145505543766,
    -0.3157444156931519,
    -0.07003887558148153,
    -0.7938120299748392,
    -0.7005347696295323,
    0.08963883567320756,
    -0.46891259567615184,
    0.40659969379937816,
    0.012050343958731528,
    -0.35484960655892184,
    -0.5401736517692349,
    -0.01863520194707524,
    -0.062031142604634826,
    0.35109700567011115,
    -0.13668328170091174,
    -0.5041133956398022,
    0.3979573981986388,
    -0.6477571501872206
   ],
   [
    0.30603818544119493,
    0.32825721113502376,
    0.3426064772557619,
    0.3797853291255413,
    -0.9650031396621048,
    -0.2762985734535738,
    -1.0357240823236988,
    -0.2346460184049073,
    -0.494820354142784,
    0.0605321671194489,
    -0.014639016696128281,
    -0.49185476600135875,
    -0.799385442144786,
    0.4703297770366358,
    0.057087196354810965,
    -0.1886087282167683,
    0.15877142254180515,
    -0.6455760895846421,
    0.4433402705810765,
    -0.4366288222108099
   ],
   [
    0.33920532000373643,
    0.4836283179576455,
    -0.19346769582210366,
    0.09634283121388587,
    -0.44325288871672697,
    -0.33237606383348484,
    -0.4498426571299748,
    -0.2525413956939718,
    0.26437715481724544,
    -0.1562548285729723,
    0.23979519832304547,
    -0.4454047728581939,
    -0.8320169965709217,
    0.22198637533037258,
    -0.02813224174977219,
    0.43396769451109973,
    0.1796491249818294,
    -0.6124130739396377,
    0.4637251296570208,
    -0.3856445900745774
   ],
   [
    -0.22960159203932842,
    0.28532805678622136,
    0.29216609742337313,
    0.4603313376993793,
    -0.8121966953090471,
    -0.38339169737430834,
    -0.06000496702424364,
    0.1795960652056585,
    -0.20755536647502837,
    -0.2325044130500233,
    -0.28190283587261017,
    -0.1341656613981304,
    -0.37643462799150446,
    0.32243516679589035,
    0.35487465539924945,
    0.10418798582304736,
    -0.03968322707658172,
    -0.5026124269528863,
    0.28446566638105364,
    -0.7388756945189313
   ],
   [
    -0.41995573329374003,
    0.0850791638440816,
    -0.3380951880829527,
    0.1775713068010767,
    -1.2735200478380297,
    -1.0564970190065368,
    -0.9304969837920417,
    -0.2364747846521447,
    0.23252528913458936,
    -0.11865062055292026,
    0.10552083041407839,
    -0.33523771070389724,
    -1.2710063907075113,
    0.2788747223663317,
    0.4291656690195703,
    -0.12133331979782491,
    0.1006911401678432,
    -0.8800342350698578,
    0.44236357598247644,
    -0.7615782990438315
   ],
   [
    0.27408010936115,
    0.07537990360186438,
    -0.35370393305738684,
    0.24266707165267032,
    -0.23186657442055897,
    -0.5280875567959639,
    -0.1156802081629333,
    0.19808798672238254,
    0.1094838739040821,
    0.34235150190201086,
    0.2451272886324464,
    0.34591181707084184,
    -0.8783659983609873,
    0.41827105448603263,
    -0.46845244718099877,
    -0.22670422950273642,
    -0.18423911847627011,
    -0.8814217153918773,
    -0.44442199866725596,
    -0.622909095897657
   ],
   [
    0.39141512684798924,
    -0.025929128318458616,
    0.17117125972959818,
    -0.47692360974679404,
    -0.23912031649392518,
    -0.7997501836299271,
    -0.663652176738533,
    -0.11470029244351253,
    0.4851591723317481,
    -0.22139229004456007,
    0.35770127029706766,
    -0.42670250732399945,
    -0.1593006479956848,
    -0.49487151122347517,
    -0.17350578031494718,
    0.20528570910196065,
    0.536359467777835,
    -0.9182340842275554,
    0.24200030321882782,
    -0.26229279029388464
   ],
   [
    -0.2824065781809271,
    0.06435665648804287,
    0.2416598452180538,
    -0.4217592589580993,
    -0.2089902338757578,
    -0.5483907044651661,
    -0.7719263239968457,
    -0.29384340502590234,
    0.18234627843696805,
    0.439920112953617,
    0.46516303467648473,
    -0.07621872340052117,
    -0.6804523184914782,
    0.10522219626470164,
    -0.02760028489728228,
    -0.08197037372682887,
    0.5918745264752876,
    -0.7511187918496445,
    -0.0011447682622936078,
    -0.5159054233783804
   ],
   [
    -0.3400242187987134,
    -0.003064811582732977,
    -0.21973974884329295,
    -0.4069809929454523,
    -0.9947087472992961,
    -0.9423019947869039,
    -0.6400699521379268,
    0.28027384394882354,
    -0.2136991012496291,
    0.13901781918937722,
    -0.16875179881104926,
    0.06436215028350355,
    -0.4534782222630725,
    0.17521403691533644,
    -0.38439808786737417,
    0.2484868946592616,
    0.02253213770707485,
    -1.1134850818043804,
    0.3987012742590045,
    -0.6685219667437199
   ],
   [
    -0.27977969695354027,
    -0.19186489513325053,
    0.3534498585355496,
    -0.4331643918118695,
    -0.41769282499619065,
    -0.3874037399306799,
    -0.40487990942448754,
    -0.3603990020034281,
    -0.35865463944716325,
    0.48335456941529664,
    -0.31088488094274147,
    0.3364649148285071,
    -0.6807097579227696,
    -0.2828925134501577,
    -0.1315705186172879,
    -0.31540093624595783,
    0.08951829028785765,
    -1.2433388758638215,
    -0.15237208354296197,
    -0.5263666897276936
   ],
   [
    -0.11723203761350864,
    -0.21723306099058204,
    0.1174284409468498,
    -0.4252816291841937,
    -0.9541781648168743,
    -0.26827985368758944,
    -0.3907283552295869,
    0.4450806784523404,
    -0.07500706867721807,
    -0.09144882521921162,
    0.4522257691583958,
    0.4064744804534356,
    -0.9255178041232796,
    -0.26784225688798835,
    0.41522540549708997,
    -0.3147633754803079,
    -0.21338702763114764,
    -0.9364930610741303,
    -0.30895204162444634,
    -0.9173887070075115
   ],
   [
    0.08559032385144207,
    -0.45253714700118647,
    -0.09730690031983433,
    0.03499704860095998,
    -0.005689825022109531,
    -0.6173085237156338,
    -0.8005841399587365,
    -0.32608780312260943,
    -0.02672358712901254,
    0.3778904961174866,
    -0.25402416672285966,
    0.266696683903501,
    -0.4918029306071644,
    0.08336914275882046,
    -0.1092691698255111,
    0.06310221573016278,
    0.13242370683362858,
    -0.5489789069204581,
    0.3481579362840399,
    -0.8218264686487066
   ],
   [
    0.23735563598434523,
    0.34855030779118035,
    -0.08421671147691186,
    -0.434102209326481,
    -1.4997854481056916,
    -0.9322902847791292,
    -1.2726061299276754,
    -0.13175149843201875,
    0.3442550527207139,
    -0.00016265530640942924,
    -0.40592873352070946,
    -0.10562369929436667,
    -0.9241010751442015,
    -0.4262393379291648,
    -0.1583987763006494,
    -0.38081546140450334,
    -0.15893949647640293,
    -1.5027898770391286,
    0.18284181392184784,
    -0.860970251768762
   ],
   [
    0.08941922713299155,
    -0.2041896411323393,
    -0.2726892214788607,
    -0.006098832640675906,
    -0.16742028232361839,
    -0.662795857476649,
    -0.887610911583939,
    -0.45171970133710704,
    0.3542660970568675,
    0.18890159867353912,
    -0.46520534030375055,
    -0.006618255853302046,
    -0.569241733096703,
    0.012228623470081353,
    -0.23163446381666314,
    -0.2366364673385241,
    -0.1292267091482466,
    -0.1521698576118291,
    0.08374676345735,
    -1.0985458843531175
   ],
   [
    0.2521938594765265,
    0.24671363663380955,
    -0.44240521906974617,
    -0.06189227597201491,
    -0.4005090968759802,
    -0.38176043612446425,
    -0.5122183166645484,
    0.0385547637186364,
    0.27677469697833446,
    -0.385236025699264,
    -0.21180514317013915,
    -0.3901180346841123,
    -0.6150076765728192,
    -0.4929244420309152,
    0.19785506881361148,
    -0.03212071282751054,
    -0.31233862594971656,
    -0.5476923779173091,
    0.16135652700821354,
    -0.8760547616932708
   ],
   [
    0.37683441013803276,
    0.45305068649521385,
    0.3996731292821386,
    0.37767293064797813,
    -0.9650007671105665,
    -0.8663841656344174,
    -1.2906195347905087,
    -0.15943672818318516,
    0.11954227351113476,
    0.05674961578652802,
    -0.4099218639511778,
    0.22563923127937974,
    -0.49577389127297594,
    -0.4282513955085831,
    0.15657629754576274,
    0.14316355847223225,
    -0.353585308087338,
    -0.919600949294786,
    0.2619363701158321,
    -0.45194524119945323
   ],
   [
    0.4499931888551927,
    -0.12009872548446117,
    0.1960278890651419,
    0.2608057387559892,
    -0.6020391844835351,
    -0.5256499131755472,
    -0.3958596741346434,
    -0.27871290226814827,
    0.24421124525304116,
    0.44205969458565214,
    0.09166894462885426,
    -0.048138206402164305,
    -1.1428431734306073,
    0.19212622996757744,
    -0.1911733615075814,
    -0.2798869278040349,
    -0.0072098168635418,
    -0.6408824185837121,
    0.2994142625314213,
    -0.8623834087672422
   ],
   [
    0.4673566589983718,
    0.49310447060412277,
    -0.4054865594304319,
    0.09090541590904178,
    -0.8487587545343309,
    -0.328333667228317,
    -0.10936065688278539,
    0.047798574663651575,
    0.2526735901984881,
    0.0870455927515565,
    0.03486071841772681,
    0.27643605245772224,
    -0.8039086872728182,
    0.3183808287003749,
    -0.4975823278274275,
    0.23313439250447984,
    0.000643348779560256,
    -0.6069859031965671,
    0.263334337640793,
    -0.08683892012377391
   ]
  ]
 ],
 "Biases": [
  [
   0.2816147790661975,
   0.02508613023017144,
   0.0641624386170442,
   0.1662836206617565,
   -0.07586393823039256,
   -0.30388725530766325,
   0.10923572040345449,
   -0.03444229540220217,
   0.3177102489905451,
   0.4958529311927753,
   -0.16228249217360396,
   0.22475770289324776,
   -0.2592764090120694,
   0.2547879700072151,
   -0.4685258174921345,
   0.04812415708638593,
   -0.07935304051899729,
   0.17147103016154355,
   -0.25563607249518916,
   0.1526374060159949
  ],
  [
   -0.36412861724179574,
   -0.5909529636197212,
   -0.420009484764604,
   -0.6795609340056301,
   -1.1512950315048713,
   -1.1768438606733336,
   0.10866445969372993,
   -1.0383597627308603,
   -0.647290900005498,
   -0.9783325530159317,
   -0.34314503778561467,
   -0.8347360352501285,
   -0.37341085761121834,
   -0.2861122814899359,
   -0.7438593418431955,
   -0.9583242019196295,
   -1.1506436555321702,
   -0.05800446974673819,
   0.09672188342371407,
   -0.1397090786217939,
   -0.12208151347291586,
   -0.5541926340169133,
   -0.6037332359222686,
   -0.5118807386024475,
   -0.4294703692473856,
   -0.4919806766983057,
   -1.2554414316949132,
   -0.466839602914256,
   -1.0350936225944833,
   -0.2070147491423291,
   -1.1124641812067277,
   -0.8814416230916726,
   -0.7807852138921264,
   -0.5120970254287401,
   -1.215502463041038,
   -0.21172471563448125
  ]
 ]
}